layer 0
    0.367837     0.626509      2.42674     0.332625      -1.3971     0.100065      -1.2015     0.139459     0.148503     -4.54598     -2.89269     0.952741     -4.93223     0.288398      1.03402  0.000384149    0.0954735      0.86913      1.58886     -2.94059  0.000475932     0.174842     -1.52654      3.59107    -0.726769     -0.27988     0.105607     0.710775   -0.0843624    -0.405077      1.15822      2.22134     0.153793      0.24728   0.00043271    -0.969266     0.156414       1.3889     0.745782     0.335421     0.762007    0.0632906     0.299573      1.21933  -0.00186951      3.86155     0.813992     0.559393      1.53615    0.0695883     0.247656     0.168618      1.10815    0.0104369     -2.69008      2.04936     0.573267    -0.188546  0.000581882     0.739819    -0.529473  8.73953e-05     0.226201      1.54674
   -0.321912    -0.554638     -1.84872     -2.11174    -0.436362     0.171083     0.414335    -0.116557      1.11617     -1.58892      -0.9375    -0.242849     -1.68429      0.47136    -0.910487   0.00378673    -0.108775    -0.621336     -0.39308      6.38351   0.00300166      1.33485     -2.28974    -0.807585     -5.05688     0.212078     -2.10214    -0.629545    0.0567753     0.301861    -0.407768      1.39012   -0.0174294   -0.0733344   0.00179591       2.3462      1.17846   -0.0117157    -0.246407     -0.30063    -0.672097     0.502805    -0.324522    -0.186867   0.00213282      1.30316      1.91825    -0.370248    -0.906241     0.550418     -1.53626      1.30567    -0.554279    -0.465205     0.953425     -2.08773      3.14561     0.142894 -0.000936084    -0.289799     0.201736   0.00296157      1.69234     -1.50872

bias 0
   -0.22846    -0.38397   -0.713332  -0.0673398   -0.220584   -0.195273    0.109971  -0.0886232    -1.02141    -2.70908   -0.462461   0.0731946    -1.76887   -0.324002   -0.619516 -0.00356039  -0.0917731   -0.431619    0.118335    -3.62611 -0.00285328    -1.22286   -0.645595   -0.853014    -1.85661   -0.127621    0.135748   -0.437138  -0.0386954   -0.186192    0.383328   -0.306518   0.0419124   0.0767892 -0.00173567   -0.526389    -1.08943    0.284286    0.235059   -0.207813   -0.472347   -0.463558   -0.116693   0.0835736 -0.00255055    -1.46563    0.272544   0.0852583    0.160707   -0.508465  -0.0525721    -1.20424    0.126943   0.0282514    0.256393    -0.77646   0.0981943  -0.0861231 -0.00104574    0.256143   -0.118395 -0.00274573    -1.56209   -0.570097

layer 1
  0.00497515   0.00943307    0.0565375    -0.139509     0.121518    -0.160707    0.0375729    0.0898669    -0.216958    -0.147205  -0.00318603    0.0029933   -0.0484011   -0.0120173     -0.23482    0.0330306    -0.118189   -0.0367146    0.0295377   0.00480641    0.0661722    -0.015363     0.010421     0.129177     0.164471    0.0574198    -0.105764  -0.00192959     0.233863     0.076399  -0.00736396   -0.0131671
  -0.0026765   0.00929844     0.086231    -0.243502     0.250837    -0.280317     0.071155     0.152815     -0.35245     -0.27618  -0.00292367  3.17433e-07   -0.0880555   -0.0116659    -0.386922    0.0434952    -0.197126   -0.0682297    0.0530414  -0.00106595    0.0945621   -0.0318908    0.0347102     0.228414     0.281414     0.090366    -0.182585  -0.00355376     0.381199     0.159659  -0.00953438  -0.00831059
 -0.00418413  0.000241277  -0.00961091      -0.2649    -0.944655   -0.0832339     0.347441     0.411601    0.0386656    -0.913343  -0.00913499  -0.00965667   -0.0472631   -0.0456401    -0.421599     0.109005    -0.301475     -1.83074     0.108559  -0.00256593   -0.0971372   -0.0168218     0.142299     0.394839     0.841437      0.19253    -0.408729   0.00484737     0.840804    -0.260437   0.00275638  -0.00897647
 -0.00542276   -0.0322802   -0.0406424    -0.805883     0.829273    -0.553613     0.280445    -0.115262    -0.445546     0.731973  -0.00965368    0.0132838    -0.161728    0.0412993    -0.567166    -0.298055    -0.564783   0.00527009    0.0920162 -0.000732844     0.475925    -0.124129    -0.183096    -0.110211    -0.480439      0.14955     0.383892  5.94872e-05     0.148717   -0.0541084   0.00580279   -0.0326345
  0.00166911   -0.0117315     0.298174    0.0449613     0.253402    -0.609807     -0.12014   -0.0408597    -0.736605     0.437681  -0.00990552   0.00726429    -0.401763  0.000367578    -0.228648     0.307411   -0.0775867     0.266419  -0.00359193   0.00458424     0.715554  -0.00139867   -0.0498911      0.20455    0.0907902   0.00441407     0.221189  -0.00969158    0.0429005    0.0810543   -0.0074103   -0.0225332
 -0.00540986   0.00838162     0.162294   -0.0530144   0.00350288   -0.0305377    0.0961638     0.107511   -0.0607182   -0.0295191 -0.000334676  -0.00758222   -0.0185997    0.0184078    -0.045401  -0.00186286   -0.0323883    0.0208153    0.0374727  -0.00866879   0.00723719  -0.00371861   0.00102443  5.28133e-05   -0.0192497    0.0589716    0.0768658   0.00866441    0.0102023 -0.000749517   0.00500188  -0.00718194
 -0.00731067   -0.0205148   0.00321332   -0.0293244   -0.0302913     0.116832     0.151658      0.24158     0.130154     0.191135  -0.00436726  -0.00766791     0.150192     0.018318     0.231998     0.230265    0.0564156     -0.38345    0.0886675   0.00235244    -0.309047   -0.0673546    -0.166591    -0.545919    -0.247812     0.142717     0.256126   0.00689758     0.100488    -0.259349   0.00183269  -0.00270755
  0.00462028   0.00778609    0.0104915    -0.052154    0.0635213   -0.0497076   0.00541276    0.0383558   -0.0984085   -0.0428767   0.00411917  0.000176974   -0.0317722   -0.0105528    -0.101188 -0.000384729   -0.0440174   0.00535815    0.0175122  -0.00558725    0.0205929   0.00230956  -0.00920373    0.0477235    0.0494418    0.0182081   -0.0165917   0.00912477    0.0669956    0.0200855   0.00334959  -0.00377505
 -0.00902219   0.00907105     0.863731    -0.334434    0.0188869    -0.152986     0.398784     0.439188    -0.364064    -0.189982   0.00578384  -0.00232558   -0.0631178    0.0611582    -0.399987      0.30358    -0.234165    0.0644531     0.163405   -0.0100163     0.156674  -0.00465252    0.0700615  -0.00673693   -0.0646806     0.283742      0.38367   0.00361429    0.0790316    0.0373686  -0.00775143   -0.0152872
  0.00586921     0.168956   -0.0703785    -0.578957    -0.931964   -0.0452455    -0.143827    -0.182479    -0.406151     -2.23932  0.000147377   -0.0106061   -0.0324121    -0.192862     -0.83705     0.699674    -0.309556      -1.4983   -0.0782834   -0.0106101     0.251269  0.000823134      1.75354    -0.218819      0.82906    -0.146436    -0.267891   0.00882615     0.640358    -0.139065   0.00479863    -0.018313
 -0.00676787   -0.0304084     0.619174    0.0928677     0.532686     -1.27562     -0.26645   -0.0894673      -1.5301     0.905151 -0.000675928   0.00301172    -0.826307   -0.0157281    -0.484504     0.633119    -0.156795     0.539343   0.00230128 -0.000276963       1.4808   -0.0204728   -0.0751135     0.427475     0.180135   0.00904406     0.440139  -0.00993327    0.0910173     0.153663   0.00390439   -0.0387955
   0.0035239   0.00705757    -0.335323    0.0855941    0.0394439    -0.347155   -0.0494425    0.0208286    0.0923041    -0.101779  -0.00936079  -0.00995812    -0.279518   -0.0358163    -0.116772    -0.452851     -0.02594    0.0603023   -0.0322766  -0.00919711    0.0408906   0.00745523     -0.16842   -0.0286244    0.0741699   -0.0521607    -0.140719  -0.00955154   -0.0773161    0.0267087   0.00320932  -0.00770153
 -0.00851539     0.285881     0.348411     0.931622     0.193039     -1.07526     -0.53829    -0.567289    -0.169034      1.02583  -0.00618167  -0.00603678    -0.465565    -0.108771     0.626927     -1.72874     0.519965     0.419043    -0.302877   0.00295643      1.69606   0.00605778       1.2777  -0.00268308      1.27426    -0.504335     -1.54182 -9.18221e-05      1.27653    -0.140582  -0.00339533   0.00219053
    0.008539 -8.96082e-05     0.295089    -0.165748   0.00711573   -0.0349818     0.347379    0.0779575   -0.0900977   -0.0395503 -0.000528171  -0.00154319  -0.00911393   -0.0793972   -0.0685191    0.0934273   -0.0543624   0.00122834    0.0403301  -0.00411382     0.150644   -0.0637446    0.0269715   0.00401251    -0.105354    0.0889704     0.119254  -0.00348658    0.0174755   0.00740614   0.00175299   0.00544841
 -0.00904776   0.00542413     0.121522    -0.412386     0.474048      -0.4658    0.0279687     0.223345    -0.745455    -0.339047   0.00817118   -0.0104474    -0.192843   -0.0301312    -0.737184    0.0733255    -0.350194    0.0472796    0.0842437  -0.00662241     0.188854   -0.0461185    0.0398729     0.358587     0.403516     0.124126    -0.165533  0.000694209     0.596006     0.173545  -0.00401259   -0.0242675
 0.000429663   0.00659829  -0.00277166  -0.00306131  -0.00103358  -0.00376053   0.00511422 -0.000864409  -0.00422599  -0.00442188   -0.0091335   0.00299294  0.000138316    0.0061327   0.00619155   0.00933904  -0.00938775 -0.000432229  -0.00884753  -0.00926365  -0.00411267   0.00984562  -0.00446212  -0.00538245   0.00871182    0.0039585  -0.00477558   0.00826521   0.00902875    0.0035531  -0.00770792 -3.77647e-05
    -0.00648   0.00921481    0.0236052   -0.0407833  -0.00808546   -0.0319787    0.0422539    0.0478586   -0.0620404   -0.0428636  -0.00832639  -0.00759027  -0.00863283  0.000621904   -0.0669256   0.00686542   -0.0397787   -0.0157795   0.00811613   0.00266981    0.0191568  -0.00849978    0.0163474    0.0392898     0.051135    0.0184329    -0.024529  -0.00873512    0.0649571   -0.0138197   0.00189376   0.00526487
 -0.00526378   0.00058804     0.104095    -0.286806     0.377921    -0.413839    0.0282261     0.180396    -0.520118    -0.318894  -0.00528272  -0.00128231    -0.139104   -0.0140788    -0.530177    0.0729448    -0.247719  -0.00472673    0.0530661  -0.00437697     0.126416   -0.0299737     0.026914     0.293949     0.333558    0.0836056    -0.188937    0.0012104     0.459849     0.177454     0.009783  -0.00728385
  0.00376659  -0.00117277    -0.582217     0.137231    0.0618419     -0.58456   -0.0894188    0.0107536     0.158064    -0.217763   0.00292194   -0.0135455     -0.46102   -0.0528377    -0.213408    -0.791431   -0.0420495    0.0916495   -0.0469466  -0.00299683    0.0382301    0.0191516    -0.271735   -0.0618041     0.102411   -0.0938477    -0.272004   0.00745767    -0.120997    0.0345239   -0.0061398  -0.00314293
  0.00350371   0.00861012      1.45558      0.97944     0.234515    -0.196253    -0.103289    -0.470778      1.10468       2.8734   0.00180532   0.00437024    -0.245583    -0.100527      1.19848     -2.36399     0.738089      0.56246    -0.297607   0.00443086      2.23145   -0.0786865    -0.708741  -0.00567522     0.187894    -0.509197     -1.15057  -0.00465805    -0.468435     0.104699   0.00470839  -0.00893457
  0.00312999   0.00258796   0.00551233  -0.00675639    0.0020077   0.00236928  -0.00066041   0.00542049   -0.0073406   0.00671968  -0.00814401   0.00571642   0.00122011    0.0091598   0.00504635   0.00548231   0.00567192   0.00561955  -0.00493445  0.000761107  0.000206755   0.00405233   0.00901008  -0.00570076   0.00199661   0.00830055   0.00152478  -0.00189984    0.0015772  -0.00386195   0.00112534   0.00810629
   0.0075433  -0.00595882      1.02848    -0.405017    0.0113774    -0.173915     0.464857     0.519335     -0.45284    -0.223404   0.00849969    0.0033341   -0.0718843    0.0694695    -0.468088      0.35627    -0.294858    0.0759862     0.204148  -0.00518687     0.190414  -0.00124861    0.0857885   -0.0203999   -0.0751642     0.355459     0.462222  -0.00917466    0.0886904    0.0588156  -0.00327658   -0.0164106
  0.00278697    0.0852156     0.123186      0.31802     0.122953    -0.996222    0.0872854     0.134844    -0.034434      1.27867   0.00734925    0.0166992    -0.306754   -0.0570998     0.316687     -0.23088     0.158071    -0.341491  -0.00398107  0.000665925      0.62297  -0.00537308     0.399583     0.229198      0.40253  -0.00822901      -1.3219  -0.00765459      0.47706    0.0503361   0.00208917  0.000786959
  0.00254454  -0.00691821      1.02487    -0.134826     -0.40133   -0.0643162     0.741324     0.992582    -0.577814    0.0873204  -0.00681433    0.0073346   -0.0326591      0.65951   -0.0709374    -0.399745    -0.333281     -1.50348     0.291409   -0.0058744    -0.907449     0.286804    -0.207502     -1.40973     0.719259     0.497816     0.601886  -0.00719332     0.341367    -0.914873  -0.00175413   -0.0049782
 -0.00813173     0.033599    0.0112771    -0.333423     -1.53719   -0.0136899      1.28256     0.663355     0.093553     -1.58311 -0.000484736   -0.0219893  -0.00675192    -0.127792    -0.348267     0.252146    -0.161255     -2.41027     0.244467   0.00388484      -1.1223   -0.0211703     0.583267    -0.720964     0.325745     0.428671    -0.198727   0.00542394      1.42779     -0.54204  -0.00903401   0.00501105
  -0.0076864   -0.0193168    0.0205359    0.0730616    -0.127219    -0.018878    0.0705022      0.13754      0.11978     0.172143   0.00502386  -0.00879198   -0.0325427   -0.0123889     0.139609   -0.0438724    0.0681705    -0.167947    0.0492395    -0.010514    0.0238719  -0.00852394   -0.0705616    -0.235298   -0.0884895     0.094987     0.119084    0.0001765      0.10533   -0.0212096  -0.00154645  -0.00419469
 0.000350086    -0.045297   -0.0475124     -1.08887      0.93777  -0.00247764     0.193329    -0.265572     -0.46817     0.744035   0.00544168   0.00650169   -0.0287615     0.027275    -0.664297    -0.222412    -0.744751    -0.369547    0.0536666   0.00337587     0.502662    -0.147034    -0.176425    -0.120859    -0.648372    0.0692271     0.287572   0.00312902    0.0533633    -0.226516  0.000161777   -0.0429072
 -0.00848463    0.0104107    0.0983987    -0.294507     0.287818    -0.310056    0.0782762     0.167393    -0.399067    -0.303228  -0.00999758  -0.00707188    -0.100435  -0.00907258    -0.433764    0.0693875    -0.236025   -0.0715452    0.0632767  0.000736867     0.102571   -0.0373879    0.0227039     0.253505     0.330609     0.102334    -0.204658  -0.00699745     0.431827     0.190835   0.00121452   -0.0202979
  -0.0087148  -0.00826346   0.00258776    0.0214005    -0.031859   -0.0142849    0.0215111    0.0381617    0.0438894    0.0511205   0.00154346   0.00860791  -0.00493653   -0.0098997    0.0293009    -0.020149    0.0138496   -0.0426864    0.0235929  -0.00225887    0.0162137   0.00418431   -0.0129216   -0.0498214   -0.0207247    0.0350755    0.0439571  -0.00789767    0.0304347   -0.0131129   0.00977466     0.001262
 -0.00631892   -0.0142153    0.0263165     0.115512    -0.166384   -0.0430756      0.11074      0.20222     0.156429     0.263411   0.00457199  -0.00747398   -0.0614281   -0.0245976     0.207451   -0.0460394    0.0880184     -0.22211    0.0789585  -0.00120868    0.0477678   0.00439832    -0.102455    -0.273876    -0.120264     0.148188     0.188712  -0.00107489     0.132166   -0.0322265  -0.00318533  -0.00227049
  -0.0026032  -0.00398965    -0.656839   -0.0138096    -0.135496    -0.208331    -0.515189    -0.152687     0.344166    -0.250573   0.00320974  -0.00820617    -0.391951   -0.0766709   -0.0963113     -1.67764   -0.0288074     0.201091     -0.11677  -0.00843561   -0.0259746   -0.0397468    -0.339286    -0.130962     0.209425     -0.17687    -0.133545   0.00832223    -0.104779   -0.0430754  -0.00806036  0.000978623
  0.00455871   0.00939949     0.611715    0.0389907    -0.127231   -0.0715347     0.567478     0.449969    -0.265007    -0.113174   0.00815698  0.000111367   -0.0805508     0.795542    -0.145319   -0.0173938    -0.140453     -2.09826     0.097436  -0.00732904    0.0222575     0.448212   -0.0924355    -0.432291   -0.0711542     0.183958     0.236854  3.68327e-05    0.0894346   -0.0203812  -0.00193836   -0.0149092
  0.00119245  -0.00528351    -0.079831    0.0115896   -0.0341093   -0.0423171   -0.0478994   -0.0170221    0.0463235   -0.0682365  -0.00832507   0.00194431   -0.0383849   -0.0124872  -0.00972463    -0.170393  -0.00174439    0.0220948  -0.00852801   0.00838357   -0.0137288   0.00690164   -0.0176714   -0.0131537    0.0266032   -0.0181438   -0.0351133   0.00544651   -0.0231869   -0.0102798  -0.00321443   -0.0067897
  0.00467925 -0.000195538    -0.137858    0.0077669   -0.0379529   -0.0457098    -0.104445   -0.0277269    0.0798333   -0.0724686   0.00537472   0.00274947   -0.0763564   -0.0264082    -0.019967    -0.326589  -0.00277736    0.0474839   -0.0232351 -0.000862587  -0.00957608   -0.0128674   -0.0693604   -0.0244589    0.0405705   -0.0316233   -0.0322315   0.00430309   -0.0306621   -0.0177859   0.00766742   0.00161422
 -0.00896202   0.00438432  -0.00757904 -9.71366e-05   0.00855034   0.00400624   0.00396785   0.00294907  -0.00117918  -0.00169255   0.00892796  0.000786885  -0.00431422   0.00673528  -0.00842594   0.00313444   0.00487206   0.00450253   0.00457137   0.00383491   0.00228829  -0.00468433   0.00273714    0.0090867  -0.00283499   0.00209936  0.000681221  -0.00917551  -0.00528617    -0.006016   0.00845326   0.00052084
 -0.00805159    0.0142128     0.430749    -0.246394    -0.259879     -0.48554     0.565017     0.134632     -1.17451      1.35681  -0.00843267  -0.00176523    -0.257835    -0.122327    -0.430052     0.893106    -0.190323    -0.523279    0.0313201   0.00439411     0.963832    0.0433535     0.208414    -0.122452     0.237402    0.0585279    -0.369661   0.00561868      0.44407    -0.266651   0.00430388   -0.0676422
   0.0082858  -0.00140067     0.936784    -0.333622    0.0283235    -0.169679      0.43736     0.465481    -0.411632    -0.161903   -0.0051577   0.00614295   -0.0589576    0.0775446     -0.42084     0.284961    -0.261341    0.0945997     0.189556  0.000380681     0.120052  2.38157e-05    0.0604607    -0.010108    -0.077416     0.326933     0.419714   0.00271073    0.0699947     0.050662   0.00352342  -0.00208929
 -0.00818191  -0.00314438    -0.712417     0.151551    -0.264482    -0.475406    -0.309714     -0.11892     0.340911    -0.632963    -0.006242  -0.00580881    -0.407191   -0.0896595    -0.125611     -1.16132    0.0529131     0.116046     -0.11239  -0.00210148    -0.175839   0.00281749    -0.226345    -0.150121    0.0715712    -0.184874    -0.388908   0.00698229    -0.168505   -0.0233498 -0.000929991  -0.00378927
  0.00661905   0.00670103    -0.416976   -0.0084929   -0.0710746    -0.137392    -0.318799   -0.0858083     0.210456    -0.187415   0.00514264   0.00470264    -0.258173    -0.061766   -0.0653917     -1.03983   -0.0140045     0.125104   -0.0624412   0.00970187   -0.0232877   -0.0254087    -0.211714   -0.0879001     0.120167    -0.108685   -0.0950667   0.00424215   -0.0733728    -0.043309  -0.00912447   0.00431502
 -0.00750886   0.00301332    0.0544856    -0.139957     0.119134    -0.155528    0.0390101    0.0778997    -0.198658    -0.151063  -0.00816108  -0.00588898   -0.0541372  -0.00368462    -0.204089    0.0381872    -0.102872   -0.0440876    0.0261592  0.000663178    0.0531727  -0.00484507    0.0269357     0.113061      0.15064    0.0570946   -0.0998998  -0.00235265     0.211074    0.0842225   0.00569733  0.000739381
  0.00987548   0.00549854     0.109181    -0.302688     0.352575     -0.36595   0.00922864     0.160339    -0.537412    -0.266541   0.00473411   0.00536459    -0.144641   -0.0235397    -0.541004    0.0605502    -0.249413    0.0271918    0.0592439  -0.00122022     0.131284   -0.0222921    0.0333234     0.271106     0.310272    0.0956586    -0.135044   0.00640515     0.446992     0.142729  -0.00365553   -0.0219239
 -0.00968291   0.00658273     0.403254    -0.143012    0.0249635   -0.0625216     0.182094     0.203905    -0.177017   -0.0581106  -0.00475101  -0.00265928   -0.0312512    0.0385662    -0.178596     0.089988    -0.111242    0.0620157    0.0904473   0.00428765    0.0324815   0.00300207    0.0228355   0.00262711   -0.0214492     0.150701      0.19703   0.00488783    0.0108006    0.0169551   0.00767897   0.00355165
  0.00740098  -0.00122423  0.000869232  -0.00591165     -0.15583   -0.0098584    0.0692263    0.0538484    0.0299276    -0.117024  -0.00653372  -0.00313147  0.000549794  -0.00889524   -0.0345322    0.0116617   -0.0269491    -0.288974    0.0169235   0.00158219   -0.0274054   -0.0152677    0.0149568    0.0165041     0.100633    0.0257577   -0.0536429  -0.00102721     0.100765   -0.0580348  -0.00114147  -0.00572381
  -0.0100424   -0.0118354    -0.372177    0.0821971     0.135628    -0.502102   -0.0173654    0.0539922    0.0652627   -0.0196571   0.00784815   -0.0104971     -0.35659   -0.0159422    -0.170949    -0.399193   -0.0527794    0.0255886   -0.0192804  -0.00193092    0.0739818    0.0237298    -0.183347   -0.0238438    0.0753372   -0.0416338    -0.170302  -0.00427514    -0.051759    0.0814731   0.00360451 -7.70546e-05
 -0.00991843  -0.00310439  -0.00405708  -0.00438569   0.00330516   0.00334724   0.00222052   0.00288652  -0.00231789  -0.00349805   0.00521325   0.00615621  -0.00348557  0.000741866  -0.00802603 -0.000350074 -0.000553296   0.00747808  -0.00953989    -0.009717   0.00978176  -0.00107035   0.00115427   0.00336964  -0.00526013  0.000776214  -0.00435407  -0.00810205  -0.00909204   0.00103362  -0.00349574   0.00378959
  0.00542154   0.00196193      1.56539    0.0358692    -0.212559    -0.103535      1.90014      1.14092     -1.58843     0.126241   -0.0080403  -0.00265218   -0.0380591     0.793622    -0.152965    -0.499768    -0.331364     -0.54397     0.307648   0.00497884    -0.128809     0.390294    -0.186237     -1.07142    -0.263894     0.516831     0.547492   0.00954628     0.326612     -1.42595    0.0243442   -0.0119971
-0.000815081   0.00818346    -0.338254     0.465662     -1.01538     -1.49633     0.228454    -0.530344    -0.131276    -0.514395   0.00809139  0.000975896   -0.0836093    0.0167823    0.0707464     0.335161     0.295019    -0.871627    -0.226311  -0.00110944     -0.16292      0.17283     0.136972     0.194768    -0.363205    -0.384169     -1.60934  -0.00564009    -0.270195    0.0417657   0.00485767    0.0106344
 -0.00699079  -0.00995762    -0.269266   -0.0591386    0.0991561   -0.0697622    -0.169872   -0.0251845    0.0936368   0.00725698   0.00632171   0.00707818    -0.179596   -0.0368895   -0.0841603    -0.679006   -0.0686127     0.132537   -0.0382409   0.00289684    0.0578083   -0.0236344    -0.160279   -0.0408569     0.093803   -0.0490745    0.0386861  -0.00742869   -0.0255427   -0.0415939   0.00743044  -0.00584887
 -0.00832096  -0.00936037    -0.689874    -0.168889     0.264613    -0.238217    -0.395943   -0.0636097      0.21048    -0.102768  -0.00462836   0.00265398    -0.417112   -0.0693344     -0.27321     -1.75769    -0.212059     0.331928   -0.0918559  -0.00950482    0.0966473   -0.0479649    -0.423447    -0.101823     0.243226    -0.148671    0.0435848 -0.000127356   -0.0642901    -0.069355   0.00249333   -0.0229979
 -0.00298201 -0.000715465     0.441754    -0.163717    0.0211082   -0.0815738     0.198429     0.213768    -0.188712   -0.0772487   0.00355582   0.00649039   -0.0262872    0.0341363    -0.189186     0.136177    -0.118618    0.0586786    0.0816073   0.00605018    0.0516175  -0.00529271    0.0187495  -0.00065858   -0.0306479     0.149877     0.202309  -0.00696307    0.0347424    0.0148743   0.00937045  -0.00937823
  0.00819989   -0.0292328   -0.0448968    -0.600183     0.625848    -0.379836     0.190031    -0.088809    -0.334149     0.530018  -0.00100333   0.00750099    -0.108092    0.0336051    -0.429541    -0.225915    -0.415342   0.00642217    0.0618406  -0.00374929     0.342792   -0.0974527    -0.146821   -0.0803694    -0.346128     0.107227     0.275422  -0.00187845     0.118707   -0.0597606 -0.000314336   -0.0254568
  0.00431399  -0.00483215       1.0394    -0.383794    0.0205953    -0.178191     0.481186     0.518049     -0.44915    -0.184278  -0.00208221   0.00233398   -0.0767453    0.0820842    -0.476126     0.309893    -0.274529     0.102641     0.197465   0.00130221     0.131969 -0.000154299    0.0748002   -0.0449915   -0.0558501     0.346216     0.458568   0.00844432     0.069183     0.042347  -0.00429526   -0.0134337
 -0.00446283   0.00104288    -0.600565   -0.0542803   -0.0125041    -0.224041    -0.331143    -0.121423     0.203269    -0.193906   0.00160623  -0.00434203    -0.355347   -0.0832294    -0.153142     -1.45034   -0.0985994     0.230443   -0.0943704  -0.00900629  -0.00338807   -0.0360326    -0.299807    -0.108552     0.181571    -0.150169    -0.119529  -0.00634297   -0.0874465   -0.0605689  -0.00631158   -0.0112573
 0.000984853    -0.015844  -0.00352337     -0.24854      0.22036    0.0100163    0.0519847   -0.0553963    -0.109168     0.164275  -0.00350476   0.00415854  -0.00758218   0.00265868    -0.139107   -0.0202028    -0.162034   -0.0880187   0.00756346  -0.00952822    0.0804501   -0.0247755   -0.0573154   -0.0331779    -0.180929    0.0243471    0.0851383   0.00074652  -0.00250294    -0.064493  -0.00795381    -0.018287
 0.000732701   -0.0626029   -0.0221523   -0.0356436    -0.177823      0.34022     0.350284     0.530175     0.268628     0.467457   0.00148676   0.00371527     0.353962    0.0504831      0.55449     0.505265     0.143547    -0.802306      0.20459   0.00201669    -0.814634    -0.141485    -0.411708     -1.27847     -0.57811     0.337312       0.5318  -0.00750254      0.17168    -0.947866  -0.00720831  -0.00457808
 -0.00100164  -0.00362092   -0.0350421    -0.134598    -0.987157   -0.0521967     0.367826     0.363106    0.0916439    -0.800281  -0.00740254  -0.00379028   -0.0340325   -0.0555728    -0.313525    0.0841818    -0.192789     -1.86508     0.129381   0.00576914     -0.16125   -0.0564985     0.101755     0.267885     0.776318     0.196828    -0.345319   -0.0096409     0.748842    -0.301068  -0.00320221  -0.00473167
  0.00114659    0.0123578    0.0586295     0.602235    -0.897977     -2.31916     0.820455    -0.578558    -0.218246    -0.146205   -0.0100496  -0.00109934   -0.0740179     0.129544     0.114271      1.06772     0.435821     -1.52169    -0.185906  -0.00969337     0.325599       0.2331     0.215596     0.221268    -0.576384    -0.308328     -1.55402  -0.00909891   -0.0728636    0.0387728   0.00270816  -0.00492055
 -0.00820951  -0.00451977   0.00693353    0.0464282    -0.076263   -0.0057126    0.0639842     0.109663    0.0950246     0.124385   -0.0025209  -0.00924767   -0.0220981   -0.0217304     0.094725    -0.030964    0.0413083    -0.115719    0.0410858  0.000406127    0.0055214 -0.000196046   -0.0446343    -0.147472   -0.0689524    0.0653068    0.0958861   0.00614692    0.0536284   -0.0178736   0.00620538 -9.07121e-06
 0.000616228   0.00347878  -0.00639216   0.00728046  -0.00599463   0.00737801  -0.00880561  -0.00653365    0.0039716   0.00775308  -0.00726088   0.00511889   0.00762413  -0.00810876   0.00641705   0.00038796   0.00272783  -0.00465449  -0.00289263  -0.00341317 -0.000425321  4.12375e-07  -0.00918346 -0.000593986 -0.000782102  -0.00797707  -0.00193224  -0.00651553    0.0097986   0.00632031   0.00810171  -0.00653544
  0.00386953  0.000729097    -0.446606    -0.022663     -0.08611    -0.132293    -0.345573    -0.102706     0.222498    -0.195299   0.00204213  -0.00191333    -0.259567    -0.062846   -0.0585332     -1.10376   -0.0224277     0.127797   -0.0702758  -0.00153447  -0.00213379   -0.0345295    -0.210939   -0.0942108     0.125076     -0.12277    -0.102615  -0.00760408   -0.0759219   -0.0535524  -0.00239806  -0.00642497
 -0.00402274   -0.0266693     0.133454    0.0630202    -0.126526    -0.101803    0.0922034     0.183177    -0.125417     0.285885  -0.00780106  -0.00716769    -0.144127   -0.0616569    0.0890167     0.284378    0.0157577    -0.111516     0.084101   -0.0111097     0.121369  -0.00225103     -0.12185   -0.0927983   -0.0934572     0.144102     0.310572  -0.00465385     0.131227  -0.00739691  -0.00699834   -0.0185328
  0.00984336  -0.00630937  -0.00722219 -0.000675881  -0.00117792   0.00865006   0.00179248   0.00561051  -0.00352231   0.00706369   0.00761219  -0.00712341 -0.000567167   0.00968203   -0.0096574    0.0030956   0.00087306 -0.000288104  -0.00230236  -0.00172536   0.00255601   0.00941273   -0.0048347   0.00301143  -0.00802665   0.00648841   0.00107832  -0.00675017  -0.00657258   0.00131362  -0.00594409   0.00438736
 -0.00107935   0.00103731      1.35385    -0.478129    0.0375305    -0.237811      0.62346     0.692365    -0.584443    -0.221773  0.000692218  -0.00653426    -0.100312     0.111137    -0.608538     0.371633     -0.36068     0.149694     0.270955   0.00116809     0.158448  0.000661645    0.0778602   -0.0470021   -0.0858202     0.461028     0.625196   0.00249195    0.0681741    0.0710876   0.00274675  -0.00191845
  0.00751528   0.00718399   -0.0400333    -0.108628    -0.728728   -0.0262027     0.246328     0.287962     0.067336    -0.581143  -0.00578416   0.00154955   -0.0244985   -0.0341114     -0.24186    0.0621912    -0.158681     -1.36947    0.0892793   0.00892049    -0.108813    -0.036425    0.0816775     0.206474     0.588227     0.149121    -0.256507  -0.00898647     0.557119    -0.205311  6.20286e-05  -0.00232481

bias 1
-0.00811159   -0.308339    -3.55974    0.115124   -0.395267     1.59277    -2.86354    -1.97555    0.721735   -0.995375 -0.00677622   -0.006373    0.488897   -0.176923     0.62443  -0.0844606    0.352534     2.08525   -0.662003  -0.0103656     -1.3589   -0.186774    -1.33719   -0.372361    -2.10718    -1.10342    0.119639 -0.00562033    -3.35445   -0.971392  -0.0196993   0.0421086

layer 2
-0.00490996 -0.00637181  0.00926663
 -0.0106047   -0.275272    0.282752
   -1.22057     3.37756    -2.14084
    0.59405   -0.324979   -0.275628
    1.90308   -0.973961   -0.933123
   -1.86328     1.90635   -0.049801
  -0.507495     2.00914    -1.50678
   0.676566  -0.0665326   -0.597963
   0.097608     1.33605    -1.44614
    1.29067    0.866815    -2.15951
0.000100548 -0.00133207  0.00852183
  0.0181622  -0.0025002  -0.0270612
  -0.922029     1.03984   -0.116069
   0.486382   -0.735078    0.267638
   0.386937    0.450759   -0.841966
   0.483936    -2.15701     1.67818
   0.636039 -0.00169381   -0.634808
    1.03054    -2.07251     1.06017
   0.385612   -0.302035  -0.0688406
-0.00168896  0.00705206 -0.00801148
   -1.71908     1.53334    0.180183
  0.0375339   -0.467211    0.419608
  -0.285656    -1.30807     1.60186
   -0.78142     1.92374    -1.13737
    1.43107    -2.33124     0.90495
   0.631315   -0.482557   -0.138652
  0.0250008     -1.8566     1.83139
-0.00261087 -0.00565134    0.008776
    1.58447    -2.80175     1.21132
  -0.559143     1.32052   -0.751561
-0.00641319   0.0231288 -0.00910739
  0.0554468   0.0283926   -0.081818

bias 2
-2.20228  1.75063 0.451642

